<?xml version="1.0"?>
<opencv_storage>
<!-- Created using Computer Vision System Toolbox(tm) for MATLAB(R) -->
<!-- Version 9.4.0.813654 (R2018a) -->
<!-- Compatible with OpenCV 3.1 -->
<cascade>
  <stageType>BOOST</stageType>
  <featureType>HAAR</featureType>
  <height>32</height>
  <width>39</width>
  <stageParams>
    <boostType>GAB</boostType>
    <minHitRate>9.9500000476837158e-01</minHitRate>
    <maxFalseAlarm>5.0000000000000000e-01</maxFalseAlarm>
    <weightTrimRate>9.4999999999999996e-01</weightTrimRate>
    <maxDepth>1</maxDepth>
    <maxWeakCount>100</maxWeakCount></stageParams>
  <featureParams>
    <maxCatCount>0</maxCatCount>
    <featSize>1</featSize>
    <mode>BASIC</mode></featureParams>
  <stageNum>10</stageNum>
  <stages>
    <!-- stage 0 -->
    <_>
      <maxWeakCount>2</maxWeakCount>
      <stageThreshold>-4.2531695961952209e-01</stageThreshold>
      <weakClassifiers>
        <_>
          <internalNodes>
            0 -1 6 -1.5139883756637573e-01</internalNodes>
          <leafValues>
            9.4520545005798340e-01 -8.9728099107742310e-01</leafValues></_>
        <_>
          <internalNodes>
            0 -1 7 1.1190144141437486e-04</internalNodes>
          <leafValues>
            4.7196400165557861e-01 -1.</leafValues></_></weakClassifiers></_>
    <!-- stage 1 -->
    <_>
      <maxWeakCount>2</maxWeakCount>
      <stageThreshold>-4.7147408127784729e-01</stageThreshold>
      <weakClassifiers>
        <_>
          <internalNodes>
            0 -1 21 -1.8964700400829315e-02</internalNodes>
          <leafValues>
            8.6111110448837280e-01 -8.4984982013702393e-01</leafValues></_>
        <_>
          <internalNodes>
            0 -1 33 4.9270638555753976e-05</internalNodes>
          <leafValues>
            3.7837576866149902e-01 -8.5382729768753052e-01</leafValues></_></weakClassifiers></_>
    <!-- stage 2 -->
    <_>
      <maxWeakCount>3</maxWeakCount>
      <stageThreshold>-7.4654299020767212e-01</stageThreshold>
      <weakClassifiers>
        <_>
          <internalNodes>
            0 -1 20 -2.5333974510431290e-02</internalNodes>
          <leafValues>
            8.6764705181121826e-01 -8.1231671571731567e-01</leafValues></_>
        <_>
          <internalNodes>
            0 -1 33 -3.0209859687602147e-05</internalNodes>
          <leafValues>
            -7.5815576314926147e-01 6.4753282070159912e-01</leafValues></_>
        <_>
          <internalNodes>
            0 -1 16 -9.5861125737428665e-03</internalNodes>
          <leafValues>
            8.6452400684356689e-01 -5.8175909519195557e-01</leafValues></_></weakClassifiers></_>
    <!-- stage 3 -->
    <_>
      <maxWeakCount>2</maxWeakCount>
      <stageThreshold>-4.8508724570274353e-01</stageThreshold>
      <weakClassifiers>
        <_>
          <internalNodes>
            0 -1 27 1.3246184587478638e-01</internalNodes>
          <leafValues>
            -8.2978725433349609e-01 7.7027028799057007e-01</leafValues></_>
        <_>
          <internalNodes>
            0 -1 9 -3.2380696211475879e-05</internalNodes>
          <leafValues>
            -1. 3.4469997882843018e-01</leafValues></_></weakClassifiers></_>
    <!-- stage 4 -->
    <_>
      <maxWeakCount>2</maxWeakCount>
      <stageThreshold>-4.3367055058479309e-01</stageThreshold>
      <weakClassifiers>
        <_>
          <internalNodes>
            0 -1 40 -6.4838454127311707e-02</internalNodes>
          <leafValues>
            7.6642334461212158e-01 -7.7647060155868530e-01</leafValues></_>
        <_>
          <internalNodes>
            0 -1 47 -9.0024841483682394e-06</internalNodes>
          <leafValues>
            -9.8259633779525757e-01 3.4280002117156982e-01</leafValues></_></weakClassifiers></_>
    <!-- stage 5 -->
    <_>
      <maxWeakCount>2</maxWeakCount>
      <stageThreshold>-4.0743601322174072e-01</stageThreshold>
      <weakClassifiers>
        <_>
          <internalNodes>
            0 -1 10 -6.0762759298086166e-02</internalNodes>
          <leafValues>
            7.0212763547897339e-01 -7.6785713434219360e-01</leafValues></_>
        <_>
          <internalNodes>
            0 -1 11 1.1634647307801060e-05</internalNodes>
          <leafValues>
            3.6042112112045288e-01 -9.4921505451202393e-01</leafValues></_></weakClassifiers></_>
    <!-- stage 6 -->
    <_>
      <maxWeakCount>2</maxWeakCount>
      <stageThreshold>-3.1275805830955505e-01</stageThreshold>
      <weakClassifiers>
        <_>
          <internalNodes>
            0 -1 8 -3.7743419408798218e-01</internalNodes>
          <leafValues>
            8.6274510622024536e-01 -6.5866667032241821e-01</leafValues></_>
        <_>
          <internalNodes>
            0 -1 18 1.3176304491935298e-05</internalNodes>
          <leafValues>
            3.4590861201286316e-01 -9.7464007139205933e-01</leafValues></_></weakClassifiers></_>
    <!-- stage 7 -->
    <_>
      <maxWeakCount>9</maxWeakCount>
      <stageThreshold>-1.0605595111846924e+00</stageThreshold>
      <weakClassifiers>
        <_>
          <internalNodes>
            0 -1 48 1.2962324544787407e-03</internalNodes>
          <leafValues>
            -8.7581700086593628e-01 6.3742691278457642e-01</leafValues></_>
        <_>
          <internalNodes>
            0 -1 29 -4.3285056948661804e-02</internalNodes>
          <leafValues>
            6.8191635608673096e-01 -5.6545954942703247e-01</leafValues></_>
        <_>
          <internalNodes>
            0 -1 24 3.3577613066881895e-05</internalNodes>
          <leafValues>
            2.5499925017356873e-01 -9.0810042619705200e-01</leafValues></_>
        <_>
          <internalNodes>
            0 -1 42 -6.1013320191705134e-06</internalNodes>
          <leafValues>
            -9.2516070604324341e-01 1.5800820291042328e-01</leafValues></_>
        <_>
          <internalNodes>
            0 -1 31 -1.3222200796008110e-03</internalNodes>
          <leafValues>
            7.4316120147705078e-01 -2.3860093951225281e-01</leafValues></_>
        <_>
          <internalNodes>
            0 -1 37 4.1354858694830909e-05</internalNodes>
          <leafValues>
            1.6562403738498688e-01 -9.0069019794464111e-01</leafValues></_>
        <_>
          <internalNodes>
            0 -1 39 1.2713758042082191e-04</internalNodes>
          <leafValues>
            7.5240835547447205e-02 -9.5982146263122559e-01</leafValues></_>
        <_>
          <internalNodes>
            0 -1 32 3.5742571344599128e-04</internalNodes>
          <leafValues>
            -1.4829476177692413e-01 8.0034881830215454e-01</leafValues></_>
        <_>
          <internalNodes>
            0 -1 35 -3.7202036764938384e-05</internalNodes>
          <leafValues>
            -8.4631747007369995e-01 1.1374037712812424e-01</leafValues></_></weakClassifiers></_>
    <!-- stage 8 -->
    <_>
      <maxWeakCount>7</maxWeakCount>
      <stageThreshold>-1.0413421392440796e+00</stageThreshold>
      <weakClassifiers>
        <_>
          <internalNodes>
            0 -1 23 -2.5288850069046021e-02</internalNodes>
          <leafValues>
            7.3611110448837280e-01 -7.9579579830169678e-01</leafValues></_>
        <_>
          <internalNodes>
            0 -1 19 -5.2456329576671124e-03</internalNodes>
          <leafValues>
            6.2696653604507446e-01 -5.3389030694961548e-01</leafValues></_>
        <_>
          <internalNodes>
            0 -1 0 7.2232179809361696e-04</internalNodes>
          <leafValues>
            2.4079786241054535e-01 -9.7037541866302490e-01</leafValues></_>
        <_>
          <internalNodes>
            0 -1 41 -2.1966484200675040e-04</internalNodes>
          <leafValues>
            -9.4279366731643677e-01 1.3758905231952667e-01</leafValues></_>
        <_>
          <internalNodes>
            0 -1 12 -4.5886228326708078e-04</internalNodes>
          <leafValues>
            6.3827466964721680e-01 -2.9531127214431763e-01</leafValues></_>
        <_>
          <internalNodes>
            0 -1 30 -7.4288493487983942e-04</internalNodes>
          <leafValues>
            -9.6998429298400879e-01 1.7121937870979309e-01</leafValues></_>
        <_>
          <internalNodes>
            0 -1 28 6.8638240918517113e-03</internalNodes>
          <leafValues>
            3.4048933535814285e-02 -9.3453854322433472e-01</leafValues></_></weakClassifiers></_>
    <!-- stage 9 -->
    <_>
      <maxWeakCount>100</maxWeakCount>
      <stageThreshold>-1.3505274057388306e+00</stageThreshold>
      <weakClassifiers>
        <_>
          <internalNodes>
            0 -1 25 -1.8171718693338335e-04</internalNodes>
          <leafValues>
            8.0519479513168335e-01 -8.7616097927093506e-01</leafValues></_>
        <_>
          <internalNodes>
            0 -1 36 2.4806954897940159e-03</internalNodes>
          <leafValues>
            -5.1852822303771973e-01 8.7190109491348267e-01</leafValues></_>
        <_>
          <internalNodes>
            0 -1 45 -1.2187056709080935e-03</internalNodes>
          <leafValues>
            8.5681354999542236e-01 -1.3598181307315826e-01</leafValues></_>
        <_>
          <internalNodes>
            0 -1 17 1.4852453023195267e-04</internalNodes>
          <leafValues>
            1.2941682338714600e-01 -1.</leafValues></_>
        <_>
          <internalNodes>
            0 -1 38 1.2866747965745162e-05</internalNodes>
          <leafValues>
            6.6755913197994232e-02 -8.0053383111953735e-01</leafValues></_>
        <_>
          <internalNodes>
            0 -1 34 -1.4702398329973221e-02</internalNodes>
          <leafValues>
            1. -7.2966523468494415e-02</leafValues></_>
        <_>
          <internalNodes>
            0 -1 44 5.4259824537439272e-05</internalNodes>
          <leafValues>
            4.8010718077421188e-02 -9.6373414993286133e-01</leafValues></_>
        <_>
          <internalNodes>
            0 -1 26 4.0967861423268914e-04</internalNodes>
          <leafValues>
            -4.3115500360727310e-02 9.6850222349166870e-01</leafValues></_>
        <_>
          <internalNodes>
            0 -1 22 6.9933295890223235e-05</internalNodes>
          <leafValues>
            5.0179932266473770e-02 -8.6975657939910889e-01</leafValues></_>
        <_>
          <internalNodes>
            0 -1 13 1.8985920178238302e-04</internalNodes>
          <leafValues>
            -3.3644907176494598e-02 9.6180289983749390e-01</leafValues></_>
        <_>
          <internalNodes>
            0 -1 43 -4.9849008064484224e-05</internalNodes>
          <leafValues>
            -9.5621889829635620e-01 3.1350318342447281e-02</leafValues></_>
        <_>
          <internalNodes>
            0 -1 46 3.6055466625839472e-04</internalNodes>
          <leafValues>
            -8.5190562531352043e-03 1.</leafValues></_>
        <_>
          <internalNodes>
            0 -1 15 -4.1868581320159137e-04</internalNodes>
          <leafValues>
            -1. 1.6821511089801788e-02</leafValues></_>
        <_>
          <internalNodes>
            0 -1 14 -4.3873779475688934e-02</internalNodes>
          <leafValues>
            1. -9.5493365079164505e-03</leafValues></_>
        <_>
          <internalNodes>
            0 -1 5 -1.3855127617716789e-03</internalNodes>
          <leafValues>
            -1. 1.2308520264923573e-02</leafValues></_>
        <_>
          <internalNodes>
            0 -1 4 -4.3119909241795540e-03</internalNodes>
          <leafValues>
            1. -2.0250806119292974e-03</leafValues></_>
        <_>
          <internalNodes>
            0 -1 3 -1.6843266785144806e-03</internalNodes>
          <leafValues>
            -1. 2.0256994757801294e-03</leafValues></_>
        <_>
          <internalNodes>
            0 -1 2 -2.8619866352528334e-03</internalNodes>
          <leafValues>
            1. -3.2349419780075550e-03</leafValues></_>
        <_>
          <internalNodes>
            0 -1 1 -2.2264688741415739e-03</internalNodes>
          <leafValues>
            -1. 3.2349333632737398e-03</leafValues></_>
        <_>
          <internalNodes>
            0 -1 1 -2.4834701325744390e-03</internalNodes>
          <leafValues>
            1. -6.9053955376148224e-03</leafValues></_>
        <_>
          <internalNodes>
            0 -1 1 -2.2264688741415739e-03</internalNodes>
          <leafValues>
            -1. 6.9052968174219131e-03</leafValues></_>
        <_>
          <internalNodes>
            0 -1 1 -2.4834701325744390e-03</internalNodes>
          <leafValues>
            1. -6.9052968174219131e-03</leafValues></_>
        <_>
          <internalNodes>
            0 -1 1 -2.2264688741415739e-03</internalNodes>
          <leafValues>
            -1. 6.9052968174219131e-03</leafValues></_>
        <_>
          <internalNodes>
            0 -1 1 -2.4834701325744390e-03</internalNodes>
          <leafValues>
            1. -6.9052968174219131e-03</leafValues></_>
        <_>
          <internalNodes>
            0 -1 1 -2.2264688741415739e-03</internalNodes>
          <leafValues>
            -1. 6.9052968174219131e-03</leafValues></_>
        <_>
          <internalNodes>
            0 -1 1 -2.4834701325744390e-03</internalNodes>
          <leafValues>
            1. -6.9052968174219131e-03</leafValues></_>
        <_>
          <internalNodes>
            0 -1 1 -2.2264688741415739e-03</internalNodes>
          <leafValues>
            -1. 6.9052968174219131e-03</leafValues></_>
        <_>
          <internalNodes>
            0 -1 1 -2.4834701325744390e-03</internalNodes>
          <leafValues>
            1. -6.9052968174219131e-03</leafValues></_>
        <_>
          <internalNodes>
            0 -1 1 -2.2264688741415739e-03</internalNodes>
          <leafValues>
            -1. 6.9052968174219131e-03</leafValues></_>
        <_>
          <internalNodes>
            0 -1 1 -2.4834701325744390e-03</internalNodes>
          <leafValues>
            1. -6.9052968174219131e-03</leafValues></_>
        <_>
          <internalNodes>
            0 -1 1 -2.2264688741415739e-03</internalNodes>
          <leafValues>
            -1. 6.9052968174219131e-03</leafValues></_>
        <_>
          <internalNodes>
            0 -1 1 -2.4834701325744390e-03</internalNodes>
          <leafValues>
            1. -6.9052968174219131e-03</leafValues></_>
        <_>
          <internalNodes>
            0 -1 1 -2.2264688741415739e-03</internalNodes>
          <leafValues>
            -1. 6.9052968174219131e-03</leafValues></_>
        <_>
          <internalNodes>
            0 -1 1 -2.4834701325744390e-03</internalNodes>
          <leafValues>
            1. -6.9052968174219131e-03</leafValues></_>
        <_>
          <internalNodes>
            0 -1 1 -2.2264688741415739e-03</internalNodes>
          <leafValues>
            -1. 6.9052968174219131e-03</leafValues></_>
        <_>
          <internalNodes>
            0 -1 1 -2.4834701325744390e-03</internalNodes>
          <leafValues>
            1. -6.9052968174219131e-03</leafValues></_>
        <_>
          <internalNodes>
            0 -1 1 -2.2264688741415739e-03</internalNodes>
          <leafValues>
            -1. 6.9052968174219131e-03</leafValues></_>
        <_>
          <internalNodes>
            0 -1 1 -2.4834701325744390e-03</internalNodes>
          <leafValues>
            1. -6.9052968174219131e-03</leafValues></_>
        <_>
          <internalNodes>
            0 -1 1 -2.2264688741415739e-03</internalNodes>
          <leafValues>
            -1. 6.9052968174219131e-03</leafValues></_>
        <_>
          <internalNodes>
            0 -1 1 -2.4834701325744390e-03</internalNodes>
          <leafValues>
            1. -6.9052968174219131e-03</leafValues></_>
        <_>
          <internalNodes>
            0 -1 1 -2.2264688741415739e-03</internalNodes>
          <leafValues>
            -1. 6.9052968174219131e-03</leafValues></_>
        <_>
          <internalNodes>
            0 -1 1 -2.4834701325744390e-03</internalNodes>
          <leafValues>
            1. -6.9052968174219131e-03</leafValues></_>
        <_>
          <internalNodes>
            0 -1 1 -2.2264688741415739e-03</internalNodes>
          <leafValues>
            -1. 6.9052968174219131e-03</leafValues></_>
        <_>
          <internalNodes>
            0 -1 1 -2.4834701325744390e-03</internalNodes>
          <leafValues>
            1. -6.9052968174219131e-03</leafValues></_>
        <_>
          <internalNodes>
            0 -1 1 -2.2264688741415739e-03</internalNodes>
          <leafValues>
            -1. 6.9052968174219131e-03</leafValues></_>
        <_>
          <internalNodes>
            0 -1 1 -2.4834701325744390e-03</internalNodes>
          <leafValues>
            1. -6.9052968174219131e-03</leafValues></_>
        <_>
          <internalNodes>
            0 -1 1 -2.2264688741415739e-03</internalNodes>
          <leafValues>
            -1. 6.9052968174219131e-03</leafValues></_>
        <_>
          <internalNodes>
            0 -1 1 -2.4834701325744390e-03</internalNodes>
          <leafValues>
            1. -6.9052968174219131e-03</leafValues></_>
        <_>
          <internalNodes>
            0 -1 1 -2.2264688741415739e-03</internalNodes>
          <leafValues>
            -1. 6.9052968174219131e-03</leafValues></_>
        <_>
          <internalNodes>
            0 -1 1 -2.4834701325744390e-03</internalNodes>
          <leafValues>
            1. -6.9052968174219131e-03</leafValues></_>
        <_>
          <internalNodes>
            0 -1 1 -2.2264688741415739e-03</internalNodes>
          <leafValues>
            -1. 6.9052968174219131e-03</leafValues></_>
        <_>
          <internalNodes>
            0 -1 1 -2.4834701325744390e-03</internalNodes>
          <leafValues>
            1. -6.9052968174219131e-03</leafValues></_>
        <_>
          <internalNodes>
            0 -1 1 -2.2264688741415739e-03</internalNodes>
          <leafValues>
            -1. 6.9052968174219131e-03</leafValues></_>
        <_>
          <internalNodes>
            0 -1 1 -2.4834701325744390e-03</internalNodes>
          <leafValues>
            1. -6.9052968174219131e-03</leafValues></_>
        <_>
          <internalNodes>
            0 -1 1 -2.2264688741415739e-03</internalNodes>
          <leafValues>
            -1. 6.9052968174219131e-03</leafValues></_>
        <_>
          <internalNodes>
            0 -1 1 -2.4834701325744390e-03</internalNodes>
          <leafValues>
            1. -6.9052968174219131e-03</leafValues></_>
        <_>
          <internalNodes>
            0 -1 1 -2.2264688741415739e-03</internalNodes>
          <leafValues>
            -1. 6.9052968174219131e-03</leafValues></_>
        <_>
          <internalNodes>
            0 -1 1 -2.4834701325744390e-03</internalNodes>
          <leafValues>
            1. -6.9052968174219131e-03</leafValues></_>
        <_>
          <internalNodes>
            0 -1 1 -2.2264688741415739e-03</internalNodes>
          <leafValues>
            -1. 6.9052968174219131e-03</leafValues></_>
        <_>
          <internalNodes>
            0 -1 1 -2.4834701325744390e-03</internalNodes>
          <leafValues>
            1. -6.9052968174219131e-03</leafValues></_>
        <_>
          <internalNodes>
            0 -1 1 -2.2264688741415739e-03</internalNodes>
          <leafValues>
            -1. 6.9052968174219131e-03</leafValues></_>
        <_>
          <internalNodes>
            0 -1 1 -2.4834701325744390e-03</internalNodes>
          <leafValues>
            1. -6.9052968174219131e-03</leafValues></_>
        <_>
          <internalNodes>
            0 -1 1 -2.2264688741415739e-03</internalNodes>
          <leafValues>
            -1. 6.9052968174219131e-03</leafValues></_>
        <_>
          <internalNodes>
            0 -1 1 -2.4834701325744390e-03</internalNodes>
          <leafValues>
            1. -6.9052968174219131e-03</leafValues></_>
        <_>
          <internalNodes>
            0 -1 1 -2.2264688741415739e-03</internalNodes>
          <leafValues>
            -1. 6.9052968174219131e-03</leafValues></_>
        <_>
          <internalNodes>
            0 -1 1 -2.4834701325744390e-03</internalNodes>
          <leafValues>
            1. -6.9052968174219131e-03</leafValues></_>
        <_>
          <internalNodes>
            0 -1 1 -2.2264688741415739e-03</internalNodes>
          <leafValues>
            -1. 6.9052968174219131e-03</leafValues></_>
        <_>
          <internalNodes>
            0 -1 1 -2.4834701325744390e-03</internalNodes>
          <leafValues>
            1. -6.9052968174219131e-03</leafValues></_>
        <_>
          <internalNodes>
            0 -1 1 -2.2264688741415739e-03</internalNodes>
          <leafValues>
            -1. 6.9052968174219131e-03</leafValues></_>
        <_>
          <internalNodes>
            0 -1 1 -2.4834701325744390e-03</internalNodes>
          <leafValues>
            1. -6.9052968174219131e-03</leafValues></_>
        <_>
          <internalNodes>
            0 -1 1 -2.2264688741415739e-03</internalNodes>
          <leafValues>
            -1. 6.9052968174219131e-03</leafValues></_>
        <_>
          <internalNodes>
            0 -1 1 -2.4834701325744390e-03</internalNodes>
          <leafValues>
            1. -6.9052968174219131e-03</leafValues></_>
        <_>
          <internalNodes>
            0 -1 1 -2.2264688741415739e-03</internalNodes>
          <leafValues>
            -1. 6.9052968174219131e-03</leafValues></_>
        <_>
          <internalNodes>
            0 -1 1 -2.4834701325744390e-03</internalNodes>
          <leafValues>
            1. -6.9052968174219131e-03</leafValues></_>
        <_>
          <internalNodes>
            0 -1 1 -2.2264688741415739e-03</internalNodes>
          <leafValues>
            -1. 6.9052968174219131e-03</leafValues></_>
        <_>
          <internalNodes>
            0 -1 1 -2.4834701325744390e-03</internalNodes>
          <leafValues>
            1. -6.9052968174219131e-03</leafValues></_>
        <_>
          <internalNodes>
            0 -1 1 -2.2264688741415739e-03</internalNodes>
          <leafValues>
            -1. 6.9052968174219131e-03</leafValues></_>
        <_>
          <internalNodes>
            0 -1 1 -2.4834701325744390e-03</internalNodes>
          <leafValues>
            1. -6.9052968174219131e-03</leafValues></_>
        <_>
          <internalNodes>
            0 -1 1 -2.2264688741415739e-03</internalNodes>
          <leafValues>
            -1. 6.9052968174219131e-03</leafValues></_>
        <_>
          <internalNodes>
            0 -1 1 -2.4834701325744390e-03</internalNodes>
          <leafValues>
            1. -6.9052968174219131e-03</leafValues></_>
        <_>
          <internalNodes>
            0 -1 1 -2.2264688741415739e-03</internalNodes>
          <leafValues>
            -1. 6.9052968174219131e-03</leafValues></_>
        <_>
          <internalNodes>
            0 -1 1 -2.4834701325744390e-03</internalNodes>
          <leafValues>
            1. -6.9052968174219131e-03</leafValues></_>
        <_>
          <internalNodes>
            0 -1 1 -2.2264688741415739e-03</internalNodes>
          <leafValues>
            -1. 6.9052968174219131e-03</leafValues></_>
        <_>
          <internalNodes>
            0 -1 1 -2.4834701325744390e-03</internalNodes>
          <leafValues>
            1. -6.9052968174219131e-03</leafValues></_>
        <_>
          <internalNodes>
            0 -1 1 -2.2264688741415739e-03</internalNodes>
          <leafValues>
            -1. 6.9052968174219131e-03</leafValues></_>
        <_>
          <internalNodes>
            0 -1 1 -2.4834701325744390e-03</internalNodes>
          <leafValues>
            1. -6.9052968174219131e-03</leafValues></_>
        <_>
          <internalNodes>
            0 -1 1 -2.2264688741415739e-03</internalNodes>
          <leafValues>
            -1. 6.9052968174219131e-03</leafValues></_>
        <_>
          <internalNodes>
            0 -1 1 -2.4834701325744390e-03</internalNodes>
          <leafValues>
            1. -6.9052968174219131e-03</leafValues></_>
        <_>
          <internalNodes>
            0 -1 1 -2.2264688741415739e-03</internalNodes>
          <leafValues>
            -1. 6.9052968174219131e-03</leafValues></_>
        <_>
          <internalNodes>
            0 -1 1 -2.4834701325744390e-03</internalNodes>
          <leafValues>
            1. -6.9052968174219131e-03</leafValues></_>
        <_>
          <internalNodes>
            0 -1 1 -2.2264688741415739e-03</internalNodes>
          <leafValues>
            -1. 6.9052968174219131e-03</leafValues></_>
        <_>
          <internalNodes>
            0 -1 1 -2.4834701325744390e-03</internalNodes>
          <leafValues>
            1. -6.9052968174219131e-03</leafValues></_>
        <_>
          <internalNodes>
            0 -1 1 -2.2264688741415739e-03</internalNodes>
          <leafValues>
            -1. 6.9052968174219131e-03</leafValues></_>
        <_>
          <internalNodes>
            0 -1 1 -2.4834701325744390e-03</internalNodes>
          <leafValues>
            1. -6.9052968174219131e-03</leafValues></_>
        <_>
          <internalNodes>
            0 -1 1 -2.2264688741415739e-03</internalNodes>
          <leafValues>
            -1. 6.9052968174219131e-03</leafValues></_>
        <_>
          <internalNodes>
            0 -1 1 -2.4834701325744390e-03</internalNodes>
          <leafValues>
            1. -6.9052968174219131e-03</leafValues></_>
        <_>
          <internalNodes>
            0 -1 1 -2.2264688741415739e-03</internalNodes>
          <leafValues>
            -1. 6.9052968174219131e-03</leafValues></_>
        <_>
          <internalNodes>
            0 -1 1 -2.4834701325744390e-03</internalNodes>
          <leafValues>
            1. -6.9052968174219131e-03</leafValues></_>
        <_>
          <internalNodes>
            0 -1 1 -2.2264688741415739e-03</internalNodes>
          <leafValues>
            -1. 6.9052968174219131e-03</leafValues></_>
        <_>
          <internalNodes>
            0 -1 1 -2.4834701325744390e-03</internalNodes>
          <leafValues>
            1. -6.9052968174219131e-03</leafValues></_></weakClassifiers></_></stages>
  <features>
    <_>
      <rects>
        <_>
          0 0 2 30 -1.</_>
        <_>
          0 10 2 10 3.</_></rects>
      <tilted>0</tilted></_>
    <_>
      <rects>
        <_>
          0 0 30 12 -1.</_>
        <_>
          10 0 10 12 3.</_></rects>
      <tilted>0</tilted></_>
    <_>
      <rects>
        <_>
          0 0 30 13 -1.</_>
        <_>
          10 0 10 13 3.</_></rects>
      <tilted>0</tilted></_>
    <_>
      <rects>
        <_>
          0 0 30 14 -1.</_>
        <_>
          10 0 10 14 3.</_></rects>
      <tilted>0</tilted></_>
    <_>
      <rects>
        <_>
          0 0 30 15 -1.</_>
        <_>
          10 0 10 15 3.</_></rects>
      <tilted>0</tilted></_>
    <_>
      <rects>
        <_>
          0 0 33 12 -1.</_>
        <_>
          11 0 11 12 3.</_></rects>
      <tilted>0</tilted></_>
    <_>
      <rects>
        <_>
          0 2 39 14 -1.</_>
        <_>
          13 2 13 14 3.</_></rects>
      <tilted>0</tilted></_>
    <_>
      <rects>
        <_>
          0 3 39 16 -1.</_>
        <_>
          13 3 13 16 3.</_></rects>
      <tilted>0</tilted></_>
    <_>
      <rects>
        <_>
          0 11 39 10 -1.</_>
        <_>
          13 11 13 10 3.</_></rects>
      <tilted>0</tilted></_>
    <_>
      <rects>
        <_>
          0 16 16 6 -1.</_>
        <_>
          0 19 16 3 2.</_></rects>
      <tilted>0</tilted></_>
    <_>
      <rects>
        <_>
          0 17 39 2 -1.</_>
        <_>
          13 17 13 2 3.</_></rects>
      <tilted>0</tilted></_>
    <_>
      <rects>
        <_>
          0 18 9 10 -1.</_>
        <_>
          3 18 3 10 3.</_></rects>
      <tilted>0</tilted></_>
    <_>
      <rects>
        <_>
          0 21 2 3 -1.</_>
        <_>
          1 21 1 3 2.</_></rects>
      <tilted>0</tilted></_>
    <_>
      <rects>
        <_>
          0 26 6 5 -1.</_>
        <_>
          2 26 2 5 3.</_></rects>
      <tilted>0</tilted></_>
    <_>
      <rects>
        <_>
          1 0 22 13 -1.</_>
        <_>
          12 0 11 13 2.</_></rects>
      <tilted>0</tilted></_>
    <_>
      <rects>
        <_>
          1 0 36 10 -1.</_>
        <_>
          19 0 18 10 2.</_></rects>
      <tilted>0</tilted></_>
    <_>
      <rects>
        <_>
          1 19 10 12 -1.</_>
        <_>
          1 19 5 6 2.</_>
        <_>
          6 25 5 6 2.</_></rects>
      <tilted>0</tilted></_>
    <_>
      <rects>
        <_>
          1 19 27 13 -1.</_>
        <_>
          10 19 9 13 3.</_></rects>
      <tilted>0</tilted></_>
    <_>
      <rects>
        <_>
          1 27 15 2 -1.</_>
        <_>
          6 27 5 2 3.</_></rects>
      <tilted>0</tilted></_>
    <_>
      <rects>
        <_>
          2 5 14 8 -1.</_>
        <_>
          2 5 7 4 2.</_>
        <_>
          9 9 7 4 2.</_></rects>
      <tilted>0</tilted></_>
    <_>
      <rects>
        <_>
          2 11 36 1 -1.</_>
        <_>
          14 11 12 1 3.</_></rects>
      <tilted>0</tilted></_>
    <_>
      <rects>
        <_>
          2 12 33 1 -1.</_>
        <_>
          13 12 11 1 3.</_></rects>
      <tilted>0</tilted></_>
    <_>
      <rects>
        <_>
          2 13 16 18 -1.</_>
        <_>
          2 19 16 6 3.</_></rects>
      <tilted>0</tilted></_>
    <_>
      <rects>
        <_>
          2 18 36 1 -1.</_>
        <_>
          14 18 12 1 3.</_></rects>
      <tilted>0</tilted></_>
    <_>
      <rects>
        <_>
          3 17 2 15 -1.</_>
        <_>
          3 22 2 5 3.</_></rects>
      <tilted>0</tilted></_>
    <_>
      <rects>
        <_>
          3 25 2 6 -1.</_>
        <_>
          4 25 1 6 2.</_></rects>
      <tilted>0</tilted></_>
    <_>
      <rects>
        <_>
          4 2 6 4 -1.</_>
        <_>
          4 2 3 2 2.</_>
        <_>
          7 4 3 2 2.</_></rects>
      <tilted>0</tilted></_>
    <_>
      <rects>
        <_>
          6 9 33 20 -1.</_>
        <_>
          6 19 33 10 2.</_></rects>
      <tilted>0</tilted></_>
    <_>
      <rects>
        <_>
          7 6 24 13 -1.</_>
        <_>
          19 6 12 13 2.</_></rects>
      <tilted>0</tilted></_>
    <_>
      <rects>
        <_>
          7 7 10 14 -1.</_>
        <_>
          12 7 5 14 2.</_></rects>
      <tilted>0</tilted></_>
    <_>
      <rects>
        <_>
          10 0 24 17 -1.</_>
        <_>
          22 0 12 17 2.</_></rects>
      <tilted>0</tilted></_>
    <_>
      <rects>
        <_>
          11 6 8 4 -1.</_>
        <_>
          11 8 8 2 2.</_></rects>
      <tilted>0</tilted></_>
    <_>
      <rects>
        <_>
          11 30 2 2 -1.</_>
        <_>
          11 31 2 1 2.</_></rects>
      <tilted>0</tilted></_>
    <_>
      <rects>
        <_>
          16 13 7 6 -1.</_>
        <_>
          16 16 7 3 2.</_></rects>
      <tilted>0</tilted></_>
    <_>
      <rects>
        <_>
          19 1 5 10 -1.</_>
        <_>
          19 6 5 5 2.</_></rects>
      <tilted>0</tilted></_>
    <_>
      <rects>
        <_>
          19 11 6 16 -1.</_>
        <_>
          19 11 3 8 2.</_>
        <_>
          22 19 3 8 2.</_></rects>
      <tilted>0</tilted></_>
    <_>
      <rects>
        <_>
          19 19 1 10 -1.</_>
        <_>
          19 24 1 5 2.</_></rects>
      <tilted>0</tilted></_>
    <_>
      <rects>
        <_>
          19 30 18 1 -1.</_>
        <_>
          25 30 6 1 3.</_></rects>
      <tilted>0</tilted></_>
    <_>
      <rects>
        <_>
          20 0 16 3 -1.</_>
        <_>
          20 1 16 1 3.</_></rects>
      <tilted>0</tilted></_>
    <_>
      <rects>
        <_>
          20 3 6 13 -1.</_>
        <_>
          22 3 2 13 3.</_></rects>
      <tilted>0</tilted></_>
    <_>
      <rects>
        <_>
          22 0 4 30 -1.</_>
        <_>
          22 10 4 10 3.</_></rects>
      <tilted>0</tilted></_>
    <_>
      <rects>
        <_>
          27 6 11 22 -1.</_>
        <_>
          27 17 11 11 2.</_></rects>
      <tilted>0</tilted></_>
    <_>
      <rects>
        <_>
          30 16 8 16 -1.</_>
        <_>
          30 16 4 8 2.</_>
        <_>
          34 24 4 8 2.</_></rects>
      <tilted>0</tilted></_>
    <_>
      <rects>
        <_>
          31 1 8 24 -1.</_>
        <_>
          31 9 8 8 3.</_></rects>
      <tilted>0</tilted></_>
    <_>
      <rects>
        <_>
          31 2 6 5 -1.</_>
        <_>
          33 2 2 5 3.</_></rects>
      <tilted>0</tilted></_>
    <_>
      <rects>
        <_>
          33 6 6 7 -1.</_>
        <_>
          35 6 2 7 3.</_></rects>
      <tilted>0</tilted></_>
    <_>
      <rects>
        <_>
          36 21 2 9 -1.</_>
        <_>
          37 21 1 9 2.</_></rects>
      <tilted>0</tilted></_>
    <_>
      <rects>
        <_>
          37 11 2 15 -1.</_>
        <_>
          38 11 1 15 2.</_></rects>
      <tilted>0</tilted></_>
    <_>
      <rects>
        <_>
          38 14 1 14 -1.</_>
        <_>
          38 21 1 7 2.</_></rects>
      <tilted>0</tilted></_></features></cascade>
</opencv_storage>
