<?xml version="1.0"?>
<opencv_storage>
<!-- Created using Computer Vision System Toolbox(tm) for MATLAB(R) -->
<!-- Version 9.4.0.813654 (R2018a) -->
<!-- Compatible with OpenCV 3.1 -->
<cascade>
  <stageType>BOOST</stageType>
  <featureType>HAAR</featureType>
  <height>32</height>
  <width>46</width>
  <stageParams>
    <boostType>GAB</boostType>
    <minHitRate>9.9500000476837158e-01</minHitRate>
    <maxFalseAlarm>5.0000000000000000e-01</maxFalseAlarm>
    <weightTrimRate>9.4999999999999996e-01</weightTrimRate>
    <maxDepth>1</maxDepth>
    <maxWeakCount>100</maxWeakCount></stageParams>
  <featureParams>
    <maxCatCount>0</maxCatCount>
    <featSize>1</featSize>
    <mode>BASIC</mode></featureParams>
  <stageNum>6</stageNum>
  <stages>
    <!-- stage 0 -->
    <_>
      <maxWeakCount>1</maxWeakCount>
      <stageThreshold>9.5121949911117554e-01</stageThreshold>
      <weakClassifiers>
        <_>
          <internalNodes>
            0 -1 1 -5.0311878323554993e-02</internalNodes>
          <leafValues>
            9.5121949911117554e-01 -1.</leafValues></_></weakClassifiers></_>
    <!-- stage 1 -->
    <_>
      <maxWeakCount>2</maxWeakCount>
      <stageThreshold>-3.0814820900559425e-02</stageThreshold>
      <weakClassifiers>
        <_>
          <internalNodes>
            0 -1 2 -6.3635329715907574e-03</internalNodes>
          <leafValues>
            8.5714286565780640e-01 -9.7435897588729858e-01</leafValues></_>
        <_>
          <internalNodes>
            0 -1 11 -8.3880890160799026e-03</internalNodes>
          <leafValues>
            9.5675486326217651e-01 -8.8795769214630127e-01</leafValues></_></weakClassifiers></_>
    <!-- stage 2 -->
    <_>
      <maxWeakCount>2</maxWeakCount>
      <stageThreshold>2.1025260910391808e-02</stageThreshold>
      <weakClassifiers>
        <_>
          <internalNodes>
            0 -1 6 5.9192180633544922e-03</internalNodes>
          <leafValues>
            -8.8095235824584961e-01 9.4444441795349121e-01</leafValues></_>
        <_>
          <internalNodes>
            0 -1 9 -3.9460249245166779e-03</internalNodes>
          <leafValues>
            9.0197765827178955e-01 -9.1265791654586792e-01</leafValues></_></weakClassifiers></_>
    <!-- stage 3 -->
    <_>
      <maxWeakCount>2</maxWeakCount>
      <stageThreshold>-1.5440165996551514e-01</stageThreshold>
      <weakClassifiers>
        <_>
          <internalNodes>
            0 -1 4 3.2043926417827606e-02</internalNodes>
          <leafValues>
            -9.7333335876464844e-01 7.3333334922790527e-01</leafValues></_>
        <_>
          <internalNodes>
            0 -1 5 -2.6881429553031921e-01</internalNodes>
          <leafValues>
            8.1893163919448853e-01 -8.8274729251861572e-01</leafValues></_></weakClassifiers></_>
    <!-- stage 4 -->
    <_>
      <maxWeakCount>2</maxWeakCount>
      <stageThreshold>-3.0992335081100464e-01</stageThreshold>
      <weakClassifiers>
        <_>
          <internalNodes>
            0 -1 0 -1.4348220080137253e-02</internalNodes>
          <leafValues>
            6.8888890743255615e-01 -9.4666665792465210e-01</leafValues></_>
        <_>
          <internalNodes>
            0 -1 10 1.0857964865863323e-02</internalNodes>
          <leafValues>
            -9.2220783233642578e-01 6.3674330711364746e-01</leafValues></_></weakClassifiers></_>
    <!-- stage 5 -->
    <_>
      <maxWeakCount>3</maxWeakCount>
      <stageThreshold>-7.9067212343215942e-01</stageThreshold>
      <weakClassifiers>
        <_>
          <internalNodes>
            0 -1 7 1.5602027997374535e-02</internalNodes>
          <leafValues>
            -6.8421053886413574e-01 1.</leafValues></_>
        <_>
          <internalNodes>
            0 -1 3 -1.1169284582138062e-02</internalNodes>
          <leafValues>
            6.7078447341918945e-01 -8.3036458492279053e-01</leafValues></_>
        <_>
          <internalNodes>
            0 -1 8 -7.0399744436144829e-03</internalNodes>
          <leafValues>
            8.0316829681396484e-01 -7.7724611759185791e-01</leafValues></_></weakClassifiers></_></stages>
  <features>
    <_>
      <rects>
        <_>
          0 0 19 4 -1.</_>
        <_>
          0 2 19 2 2.</_></rects>
      <tilted>0</tilted></_>
    <_>
      <rects>
        <_>
          0 9 45 7 -1.</_>
        <_>
          15 9 15 7 3.</_></rects>
      <tilted>0</tilted></_>
    <_>
      <rects>
        <_>
          0 10 4 15 -1.</_>
        <_>
          2 10 2 15 2.</_></rects>
      <tilted>0</tilted></_>
    <_>
      <rects>
        <_>
          0 19 15 8 -1.</_>
        <_>
          5 19 5 8 3.</_></rects>
      <tilted>0</tilted></_>
    <_>
      <rects>
        <_>
          1 8 6 24 -1.</_>
        <_>
          1 20 6 12 2.</_></rects>
      <tilted>0</tilted></_>
    <_>
      <rects>
        <_>
          2 0 42 30 -1.</_>
        <_>
          2 10 42 10 3.</_></rects>
      <tilted>0</tilted></_>
    <_>
      <rects>
        <_>
          18 28 9 4 -1.</_>
        <_>
          18 30 9 2 2.</_></rects>
      <tilted>0</tilted></_>
    <_>
      <rects>
        <_>
          19 8 6 15 -1.</_>
        <_>
          19 13 6 5 3.</_></rects>
      <tilted>0</tilted></_>
    <_>
      <rects>
        <_>
          24 0 8 4 -1.</_>
        <_>
          24 2 8 2 2.</_></rects>
      <tilted>0</tilted></_>
    <_>
      <rects>
        <_>
          39 19 6 12 -1.</_>
        <_>
          39 19 3 6 2.</_>
        <_>
          42 25 3 6 2.</_></rects>
      <tilted>0</tilted></_>
    <_>
      <rects>
        <_>
          40 8 6 15 -1.</_>
        <_>
          43 8 3 15 2.</_></rects>
      <tilted>0</tilted></_>
    <_>
      <rects>
        <_>
          41 0 5 8 -1.</_>
        <_>
          41 4 5 4 2.</_></rects>
      <tilted>0</tilted></_></features></cascade>
</opencv_storage>
